<?xml version="1.0"?>
<opencv_storage>
<stage6>
  <maxWeakCount>6</maxWeakCount>
  <stageThreshold>-1.3735218048095703e+00</stageThreshold>
  <weakClassifiers>
    <_>
      <internalNodes>
        0 -1 365504 1.7341980710625648e-03</internalNodes>
      <leafValues>
        -8.7563711404800415e-01 2.6940637826919556e-01</leafValues></_>
    <_>
      <internalNodes>
        0 -1 364780 -1.4455926604568958e-02</internalNodes>
      <leafValues>
        2.7638730406761169e-01 -9.3512070178985596e-01</leafValues></_>
    <_>
      <internalNodes>
        0 -1 197515 -3.0194815248250961e-02</internalNodes>
      <leafValues>
        4.6553781628608704e-01 -6.8613702058792114e-01</leafValues></_>
    <_>
      <internalNodes>
        0 -1 93609 -1.8729888834059238e-03</internalNodes>
      <leafValues>
        -7.5578528642654419e-01 3.8463851809501648e-01</leafValues></_>
    <_>
      <internalNodes>
        0 -1 192136 -6.5214246511459351e-02</internalNodes>
      <leafValues>
        3.5098701715469360e-01 -8.0436366796493530e-01</leafValues></_>
    <_>
      <internalNodes>
        0 -1 473839 -6.5555185079574585e-02</internalNodes>
      <leafValues>
        -7.2895383834838867e-01 3.9805474877357483e-01</leafValues></_></weakClassifiers></stage6>
</opencv_storage>
